svm_type c_svc
kernel_type rbf
gamma 0.0588235
nr_class 2
total_sv 48
rho 0.092597
label 1 -1
nr_sv 24 24
SV
0.9474932163191062 3:0.38 5:1 12:10.25 13:13 14:0.045059564 17:1.45 
1.092786327462429 2:9 3:0.3608769 5:2 8:2 12:19.8 13:119 14:0.031974728 15:8 16:1 17:1.57 
1.090264785388965 2:9 3:0.26611797 8:2 12:10 13:67 14:0.018906267 17:1.52 
1.092684951562328 3:0.30474604 8:6 12:40.36 13:98 14:0.025047816 16:1 17:5.3 
1.092439806291596 3:0.23664122 8:2 12:39.75 13:68 14:0.023946051 17:1.54 
1.090426356955291 3:0.40545455 8:2 10:1 12:6.31 13:65 14:0.041811791 15:2 17:3.36 
1.3286351952742 3:0.34474328 5:1 12:3.83 13:10 14:0.016665062 17:2.36 
1.090432240804243 3:0.29292929 12:33 13:33 14:0.02958832 17:7.03 
0.7338820713514803 3:0.27638191 5:1 12:13 13:33 14:0.031088621 17:3.35 
1.369832186769866 2:4 3:0.47124304 12:4.42 13:21 14:0.034264572 15:2 17:1.89 
1.081507154176355 3:0.3372549 12:8.69 13:16 14:0.033243983 16:9 17:2.75 
1.24137092239481 3:0.20070423 5:1 12:24 13:33 14:0.021929516 17:1.17 
0.5963445260803333 3:0.22222222 12:1 13:1 17:1.27 
0.6280518315070813 2:3 3:0.29106029 5:2 12:7 13:11 14:0.0279559 17:1.45 
1.574978807421256 2:9 3:0.34943538 12:7.54 13:18 14:0.019452009 17:0.84 
0.08804239942976241 3:0.24709527 5:1 12:15.93 13:35 14:0.026210977 17:3.35 
1.07568460279927 3:0.33061224 5:7 12:26.57 13:30 14:0.088050823 17:3.37 
1.154165286422561 3:0.25847458 10:1 12:18.5 13:21 14:0.024590809 15:2 17:4.04 
0.7174563281604888 3:0.23109244 12:17.5 13:35 14:0.017506085 17:1.71 
0.5761673427884693 3:0.33956619 12:14.73 13:31 14:0.059251138 16:1 17:2.96 
1.092843959736175 3:0.33799534 12:2.3 13:14 14:0.0030676312 16:3 17:1.66 
0.5342292286431896 3:0.4 17:3.57 
1.109663636673395 2:5 3:0.23684211 12:4.5 13:5 14:0.027792876 17:1.22 
0.4540338801961744 2:1 3:0.17910448 17:0.32 
-0.9075321965736476 3:0.67961165 4:1 8:2 10:1 12:73.29 13:293 14:0.03919867 16:1 17:1.27 
-0.8800301019567639 3:0.61332749 12:1.58 13:5 14:0.0034488731 16:2 17:0.14 
-1.444330400249853 3:0.98677832 12:2.04 13:9 14:0.002830835 16:2 17:0.16 
-0.9075581272296277 3:0.20855019 8:2 10:1 12:93.56 13:2246 14:0.0086256851 17:9.29 
-0.9881672455681099 3:0.44966443 12:13.5 13:24 14:0.025572613 17:0.93 
-1.058693091761302 2:4 3:0.4047619 4:1 12:10.71 13:34 14:0.064977118 15:1 17:0.56 
-0.9075623349227656 3:0.0344294 8:2 12:1587 13:4696 14:0.0021559856 16:1 17:0.19 
-0.9075321965736476 3:0.76576577 4:1 8:2 12:68.29 13:221 14:0.067385064 15:1 16:1 17:1.4 
-0.9072268649935178 2:7 3:0.34079602 4:2 8:1 12:19.45 13:139 14:0.053191953 15:2 17:1.3 
-0.9075629934503323 3:0.11411992 8:2 12:48.23 13:520 14:0.021054333 16:3 17:0.52 
-0.9070483868427403 3:0.73172368 8:2 10:1 12:252.67 13:2318 14:0.0045897059 17:1.2 
-0.907315048437672 3:0.042120208 8:2 12:1272.33 13:3752 14:0.0026199267 16:1 17:0.23 
-1.011890053980638 2:1 3:0.58166969 12:5.41 13:26 14:0.045461722 17:3.56 
-0.9075152385935354 3:2.5337423 8:1 12:102.2 13:477 14:0.021839721 15:1 17:0.35 
-0.9075732733266794 3:0.6327212 4:1 8:2 10:1 12:89.43 13:351 14:0.030732086 16:1 17:1.23 
-0.9075152385935354 3:0.38697105 8:1 10:1 12:2376.5 13:4752 14:0.00056332333 16:1 
-0.9072136725404326 3:0.64310748 8:1 10:1 12:168.8 13:2508 14:0.00432195 17:0.07 
-0.9075629934503323 3:0.46650573 8:2 12:113.16 13:95 14:0.012595988 17:1.15 
-0.4565866710887431 2:3 3:0.71084337 8:4 12:205.82 13:2110 14:0.0086520017 17:1.06 
-0.4509213428259675 2:3 3:0.71151272 8:4 12:205.91 13:2110 14:0.0086750003 17:1.1 
-1.759898883573591 2:5 3:0.42756184 5:1 10:1 12:7.12 13:17 14:0.064763913 17:1.24 
-0.9074697077603852 3:0.12195122 8:1 10:1 12:130.5 13:261 14:0.0091364487 16:1 17:1.36 
-1.191076549268666 3:0.14499606 9:1 12:23.96 13:28 14:0.05091472 17:1.86 
-0.9076344310463395 3:0.55555556 8:2 10:1 12:13.12 13:176 14:0.024465572 17:0.25 
